digraph Tree {
node [shape=box] ;
0 [label="X[0] <= 0.2171\ngini = 0.1669\nsamples = 701016\nvalue = [64438, 636578]"] ;
1 [label="X[1] <= -0.0898\ngini = 0.0368\nsamples = 612644\nvalue = [11489, 601155]"] ;
0 -> 1 [labeldistance=2.5, labelangle=45, headlabel="True"] ;
2 [label="X[0] <= 0.1221\ngini = 0.018\nsamples = 591944\nvalue = [5378, 586566]"] ;
1 -> 2 ;
3 [label="X[1] <= -0.2254\ngini = 0.0137\nsamples = 582586\nvalue = [4019, 578567]"] ;
2 -> 3 ;
4 [label="X[2] <= 215.5\ngini = 0.0089\nsamples = 560650\nvalue = [2493, 558157]"] ;
3 -> 4 ;
5 [label="X[0] <= 0.0026\ngini = 0.0024\nsamples = 444518\nvalue = [539, 443979]"] ;
4 -> 5 ;
6 [label="X[0] <= -0.1647\ngini = 0.0018\nsamples = 442078\nvalue = [390, 441688]"] ;
5 -> 6 ;
7 [label="gini = 0.0012\nsamples = 429196\nvalue = [260, 428936]"] ;
6 -> 7 ;
8 [label="gini = 0.02\nsamples = 12882\nvalue = [130, 12752]"] ;
6 -> 8 ;
9 [label="X[0] <= 0.003\ngini = 0.1147\nsamples = 2440\nvalue = [149, 2291]"] ;
5 -> 9 ;
10 [label="gini = 0.0\nsamples = 13\nvalue = [13, 0]"] ;
9 -> 10 ;
11 [label="gini = 0.1058\nsamples = 2427\nvalue = [136, 2291]"] ;
9 -> 11 ;
12 [label="X[0] <= -0.8688\ngini = 0.0331\nsamples = 116132\nvalue = [1954, 114178]"] ;
4 -> 12 ;
13 [label="X[1] <= -0.9675\ngini = 0.0783\nsamples = 49\nvalue = [47, 2]"] ;
12 -> 13 ;
14 [label="gini = 0.4444\nsamples = 3\nvalue = [1, 2]"] ;
13 -> 14 ;
15 [label="gini = 0.0\nsamples = 46\nvalue = [46, 0]"] ;
13 -> 15 ;
16 [label="X[0] <= -0.6946\ngini = 0.0323\nsamples = 116083\nvalue = [1907, 114176]"] ;
12 -> 16 ;
17 [label="gini = 0.0831\nsamples = 9628\nvalue = [418, 9210]"] ;
16 -> 17 ;
18 [label="gini = 0.0276\nsamples = 106455\nvalue = [1489, 104966]"] ;
16 -> 18 ;
19 [label="X[2] <= 83.5\ngini = 0.1295\nsamples = 21936\nvalue = [1526, 20410]"] ;
3 -> 19 ;
20 [label="X[1] <= -0.2049\ngini = 0.003\nsamples = 5283\nvalue = [8, 5275]"] ;
19 -> 20 ;
21 [label="X[1] <= -0.2065\ngini = 0.0286\nsamples = 483\nvalue = [7, 476]"] ;
20 -> 21 ;
22 [label="gini = 0.0\nsamples = 476\nvalue = [0, 476]"] ;
21 -> 22 ;
23 [label="gini = 0.0\nsamples = 7\nvalue = [7, 0]"] ;
21 -> 23 ;
24 [label="X[2] <= 63.0\ngini = 0.0004\nsamples = 4800\nvalue = [1, 4799]"] ;
20 -> 24 ;
25 [label="gini = 0.0\nsamples = 4198\nvalue = [0, 4198]"] ;
24 -> 25 ;
26 [label="gini = 0.0033\nsamples = 602\nvalue = [1, 601]"] ;
24 -> 26 ;
27 [label="X[1] <= -0.1486\ngini = 0.1657\nsamples = 16653\nvalue = [1518, 15135]"] ;
19 -> 27 ;
28 [label="X[2] <= 85.0\ngini = 0.1213\nsamples = 11304\nvalue = [733, 10571]"] ;
27 -> 28 ;
29 [label="gini = 0.3367\nsamples = 28\nvalue = [22, 6]"] ;
28 -> 29 ;
30 [label="gini = 0.1182\nsamples = 11276\nvalue = [711, 10565]"] ;
28 -> 30 ;
31 [label="X[0] <= 0.037\ngini = 0.2504\nsamples = 5349\nvalue = [785, 4564]"] ;
27 -> 31 ;
32 [label="gini = 0.3796\nsamples = 2164\nvalue = [551, 1613]"] ;
31 -> 32 ;
33 [label="gini = 0.1361\nsamples = 3185\nvalue = [234, 2951]"] ;
31 -> 33 ;
34 [label="X[2] <= 363.5\ngini = 0.2483\nsamples = 9358\nvalue = [1359, 7999]"] ;
2 -> 34 ;
35 [label="X[0] <= 0.1744\ngini = 0.4514\nsamples = 2078\nvalue = [715, 1363]"] ;
34 -> 35 ;
36 [label="X[0] <= 0.1287\ngini = 0.3461\nsamples = 1096\nvalue = [244, 852]"] ;
35 -> 36 ;
37 [label="X[2] <= 334.0\ngini = 0.4789\nsamples = 360\nvalue = [217, 143]"] ;
36 -> 37 ;
38 [label="gini = 0.42\nsamples = 310\nvalue = [217, 93]"] ;
37 -> 38 ;
39 [label="gini = 0.0\nsamples = 50\nvalue = [0, 50]"] ;
37 -> 39 ;
40 [label="X[2] <= 355.5\ngini = 0.0707\nsamples = 736\nvalue = [27, 709]"] ;
36 -> 40 ;
41 [label="gini = 0.0459\nsamples = 724\nvalue = [17, 707]"] ;
40 -> 41 ;
42 [label="gini = 0.2778\nsamples = 12\nvalue = [10, 2]"] ;
40 -> 42 ;
43 [label="X[2] <= 164.5\ngini = 0.4992\nsamples = 982\nvalue = [471, 511]"] ;
35 -> 43 ;
44 [label="gini = 0.0\nsamples = 201\nvalue = [0, 201]"] ;
43 -> 44 ;
45 [label="X[0] <= 0.1825\ngini = 0.4788\nsamples = 781\nvalue = [471, 310]"] ;
43 -> 45 ;
46 [label="gini = 0.2778\nsamples = 306\nvalue = [255, 51]"] ;
45 -> 46 ;
47 [label="gini = 0.4959\nsamples = 475\nvalue = [216, 259]"] ;
45 -> 47 ;
48 [label="X[2] <= 718.5\ngini = 0.1613\nsamples = 7280\nvalue = [644, 6636]"] ;
34 -> 48 ;
49 [label="X[0] <= 0.1306\ngini = 0.243\nsamples = 4380\nvalue = [620, 3760]"] ;
48 -> 49 ;
50 [label="X[2] <= 546.0\ngini = 0.4507\nsamples = 379\nvalue = [130, 249]"] ;
49 -> 50 ;
51 [label="gini = 0.2612\nsamples = 246\nvalue = [38, 208]"] ;
50 -> 51 ;
52 [label="gini = 0.4265\nsamples = 133\nvalue = [92, 41]"] ;
50 -> 52 ;
53 [label="X[0] <= 0.1538\ngini = 0.2149\nsamples = 4001\nvalue = [490, 3511]"] ;
49 -> 53 ;
54 [label="gini = 0.0925\nsamples = 1317\nvalue = [64, 1253]"] ;
53 -> 54 ;
55 [label="gini = 0.2671\nsamples = 2684\nvalue = [426, 2258]"] ;
53 -> 55 ;
56 [label="X[1] <= -0.1224\ngini = 0.0164\nsamples = 2900\nvalue = [24, 2876]"] ;
48 -> 56 ;
57 [label="X[2] <= 738.5\ngini = 0.0041\nsamples = 2423\nvalue = [5, 2418]"] ;
56 -> 57 ;
58 [label="gini = 0.046\nsamples = 85\nvalue = [2, 83]"] ;
57 -> 58 ;
59 [label="gini = 0.0026\nsamples = 2338\nvalue = [3, 2335]"] ;
57 -> 59 ;
60 [label="X[1] <= -0.121\ngini = 0.0765\nsamples = 477\nvalue = [19, 458]"] ;
56 -> 60 ;
61 [label="gini = 0.4444\nsamples = 12\nvalue = [8, 4]"] ;
60 -> 61 ;
62 [label="gini = 0.0462\nsamples = 465\nvalue = [11, 454]"] ;
60 -> 62 ;
63 [label="X[2] <= 610.0\ngini = 0.4161\nsamples = 20700\nvalue = [6111, 14589]"] ;
1 -> 63 ;
64 [label="X[2] <= 209.5\ngini = 0.2112\nsamples = 9909\nvalue = [1189, 8720]"] ;
63 -> 64 ;
65 [label="X[1] <= -0.0891\ngini = 0.0612\nsamples = 5630\nvalue = [178, 5452]"] ;
64 -> 65 ;
66 [label="gini = 0.0\nsamples = 20\nvalue = [20, 0]"] ;
65 -> 66 ;
67 [label="X[2] <= 83.5\ngini = 0.0547\nsamples = 5610\nvalue = [158, 5452]"] ;
65 -> 67 ;
68 [label="X[1] <= 0.0529\ngini = 0.0086\nsamples = 3721\nvalue = [16, 3705]"] ;
67 -> 68 ;
69 [label="gini = 0.0498\nsamples = 352\nvalue = [9, 343]"] ;
68 -> 69 ;
70 [label="gini = 0.0041\nsamples = 3369\nvalue = [7, 3362]"] ;
68 -> 70 ;
71 [label="X[2] <= 84.5\ngini = 0.139\nsamples = 1889\nvalue = [142, 1747]"] ;
67 -> 71 ;
72 [label="gini = 0.0868\nsamples = 22\nvalue = [21, 1]"] ;
71 -> 72 ;
73 [label="gini = 0.1212\nsamples = 1867\nvalue = [121, 1746]"] ;
71 -> 73 ;
74 [label="X[1] <= -0.0893\ngini = 0.3609\nsamples = 4279\nvalue = [1011, 3268]"] ;
64 -> 74 ;
75 [label="X[2] <= 285.0\ngini = 0.1443\nsamples = 115\nvalue = [106, 9]"] ;
74 -> 75 ;
76 [label="gini = 0.0\nsamples = 90\nvalue = [90, 0]"] ;
75 -> 76 ;
77 [label="X[2] <= 457.5\ngini = 0.4608\nsamples = 25\nvalue = [16, 9]"] ;
75 -> 77 ;
78 [label="gini = 0.0\nsamples = 6\nvalue = [0, 6]"] ;
77 -> 78 ;
79 [label="gini = 0.2659\nsamples = 19\nvalue = [16, 3]"] ;
77 -> 79 ;
80 [label="X[1] <= -0.0379\ngini = 0.3402\nsamples = 4164\nvalue = [905, 3259]"] ;
74 -> 80 ;
81 [label="X[1] <= -0.0457\ngini = 0.4125\nsamples = 1967\nvalue = [572, 1395]"] ;
80 -> 81 ;
82 [label="gini = 0.347\nsamples = 1571\nvalue = [351, 1220]"] ;
81 -> 82 ;
83 [label="gini = 0.4933\nsamples = 396\nvalue = [221, 175]"] ;
81 -> 83 ;
84 [label="X[1] <= 0.0377\ngini = 0.2572\nsamples = 2197\nvalue = [333, 1864]"] ;
80 -> 84 ;
85 [label="gini = 0.1583\nsamples = 1431\nvalue = [124, 1307]"] ;
84 -> 85 ;
86 [label="gini = 0.3968\nsamples = 766\nvalue = [209, 557]"] ;
84 -> 86 ;
87 [label="X[1] <= -0.0047\ngini = 0.4961\nsamples = 10791\nvalue = [4922, 5869]"] ;
63 -> 87 ;
88 [label="X[0] <= 0.0659\ngini = 0.3489\nsamples = 5899\nvalue = [1328, 4571]"] ;
87 -> 88 ;
89 [label="X[1] <= -0.0433\ngini = 0.3946\nsamples = 1165\nvalue = [850, 315]"] ;
88 -> 89 ;
90 [label="X[0] <= 0.0443\ngini = 0.4686\nsamples = 595\nvalue = [372, 223]"] ;
89 -> 90 ;
91 [label="gini = 0.4152\nsamples = 459\nvalue = [324, 135]"] ;
90 -> 91 ;
92 [label="gini = 0.4567\nsamples = 136\nvalue = [48, 88]"] ;
90 -> 92 ;
93 [label="X[1] <= -0.0379\ngini = 0.2707\nsamples = 570\nvalue = [478, 92]"] ;
89 -> 93 ;
94 [label="gini = 0.1451\nsamples = 254\nvalue = [234, 20]"] ;
93 -> 94 ;
95 [label="gini = 0.3519\nsamples = 316\nvalue = [244, 72]"] ;
93 -> 95 ;
96 [label="X[0] <= 0.0984\ngini = 0.1816\nsamples = 4734\nvalue = [478, 4256]"] ;
88 -> 96 ;
97 [label="X[1] <= -0.043\ngini = 0.429\nsamples = 552\nvalue = [172, 380]"] ;
96 -> 97 ;
98 [label="gini = 0.2819\nsamples = 377\nvalue = [64, 313]"] ;
97 -> 98 ;
99 [label="gini = 0.4726\nsamples = 175\nvalue = [108, 67]"] ;
97 -> 99 ;
100 [label="X[2] <= 752.5\ngini = 0.1356\nsamples = 4182\nvalue = [306, 3876]"] ;
96 -> 100 ;
101 [label="gini = 0.3546\nsamples = 712\nvalue = [164, 548]"] ;
100 -> 101 ;
102 [label="gini = 0.0785\nsamples = 3470\nvalue = [142, 3328]"] ;
100 -> 102 ;
103 [label="X[1] <= 0.0596\ngini = 0.3899\nsamples = 4892\nvalue = [3594, 1298]"] ;
87 -> 103 ;
104 [label="X[0] <= 0.1512\ngini = 0.4734\nsamples = 2633\nvalue = [1620, 1013]"] ;
103 -> 104 ;
105 [label="X[0] <= 0.1191\ngini = 0.3007\nsamples = 1660\nvalue = [1354, 306]"] ;
104 -> 105 ;
106 [label="gini = 0.2104\nsamples = 1180\nvalue = [1039, 141]"] ;
105 -> 106 ;
107 [label="gini = 0.4512\nsamples = 480\nvalue = [315, 165]"] ;
105 -> 107 ;
108 [label="X[2] <= 1077.0\ngini = 0.3973\nsamples = 973\nvalue = [266, 707]"] ;
104 -> 108 ;
109 [label="gini = 0.457\nsamples = 696\nvalue = [246, 450]"] ;
108 -> 109 ;
110 [label="gini = 0.134\nsamples = 277\nvalue = [20, 257]"] ;
108 -> 110 ;
111 [label="X[2] <= 774.0\ngini = 0.2205\nsamples = 2259\nvalue = [1974, 285]"] ;
103 -> 111 ;
112 [label="X[0] <= 0.1727\ngini = 0.4309\nsamples = 277\nvalue = [190, 87]"] ;
111 -> 112 ;
113 [label="gini = 0.2642\nsamples = 166\nvalue = [140, 26]"] ;
112 -> 113 ;
114 [label="gini = 0.4951\nsamples = 111\nvalue = [50, 61]"] ;
112 -> 114 ;
115 [label="X[2] <= 1151.0\ngini = 0.1798\nsamples = 1982\nvalue = [1784, 198]"] ;
111 -> 115 ;
116 [label="gini = 0.15\nsamples = 1885\nvalue = [1731, 154]"] ;
115 -> 116 ;
117 [label="gini = 0.4957\nsamples = 97\nvalue = [53, 44]"] ;
115 -> 117 ;
118 [label="X[2] <= 393.5\ngini = 0.4803\nsamples = 88372\nvalue = [52949, 35423]"] ;
0 -> 118 [labeldistance=2.5, labelangle=-45, headlabel="False"] ;
119 [label="X[2] <= 131.5\ngini = 0.4588\nsamples = 21399\nvalue = [7627, 13772]"] ;
118 -> 119 ;
120 [label="X[0] <= 0.2544\ngini = 0.0599\nsamples = 3108\nvalue = [96, 3012]"] ;
119 -> 120 ;
121 [label="X[0] <= 0.2326\ngini = 0.4892\nsamples = 68\nvalue = [39, 29]"] ;
120 -> 121 ;
122 [label="X[1] <= -0.6673\ngini = 0.0666\nsamples = 29\nvalue = [1, 28]"] ;
121 -> 122 ;
123 [label="X[1] <= -0.7315\ngini = 0.375\nsamples = 4\nvalue = [1, 3]"] ;
122 -> 123 ;
124 [label="gini = 0.0\nsamples = 2\nvalue = [0, 2]"] ;
123 -> 124 ;
125 [label="gini = 0.5\nsamples = 2\nvalue = [1, 1]"] ;
123 -> 125 ;
126 [label="gini = 0.0\nsamples = 25\nvalue = [0, 25]"] ;
122 -> 126 ;
127 [label="X[1] <= 0.342\ngini = 0.05\nsamples = 39\nvalue = [38, 1]"] ;
121 -> 127 ;
128 [label="gini = 0.0\nsamples = 38\nvalue = [38, 0]"] ;
127 -> 128 ;
129 [label="gini = 0.0\nsamples = 1\nvalue = [0, 1]"] ;
127 -> 129 ;
130 [label="X[0] <= 0.583\ngini = 0.0368\nsamples = 3040\nvalue = [57, 2983]"] ;
120 -> 130 ;
131 [label="X[2] <= 58.0\ngini = 0.0148\nsamples = 2677\nvalue = [20, 2657]"] ;
130 -> 131 ;
132 [label="gini = 0.0\nsamples = 1771\nvalue = [0, 1771]"] ;
131 -> 132 ;
133 [label="X[0] <= 0.4499\ngini = 0.0432\nsamples = 906\nvalue = [20, 886]"] ;
131 -> 133 ;
134 [label="gini = 0.1391\nsamples = 266\nvalue = [20, 246]"] ;
133 -> 134 ;
135 [label="gini = 0.0\nsamples = 640\nvalue = [0, 640]"] ;
133 -> 135 ;
136 [label="X[0] <= 0.6129\ngini = 0.1831\nsamples = 363\nvalue = [37, 326]"] ;
130 -> 136 ;
137 [label="gini = 0.0\nsamples = 35\nvalue = [35, 0]"] ;
136 -> 137 ;
138 [label="X[2] <= 114.0\ngini = 0.0121\nsamples = 328\nvalue = [2, 326]"] ;
136 -> 138 ;
139 [label="gini = 0.0\nsamples = 270\nvalue = [0, 270]"] ;
138 -> 139 ;
140 [label="gini = 0.0666\nsamples = 58\nvalue = [2, 56]"] ;
138 -> 140 ;
141 [label="X[1] <= 0.03\ngini = 0.4844\nsamples = 18291\nvalue = [7531, 10760]"] ;
119 -> 141 ;
142 [label="X[0] <= 0.3387\ngini = 0.4638\nsamples = 5527\nvalue = [3507, 2020]"] ;
141 -> 142 ;
143 [label="X[1] <= -0.0857\ngini = 0.4975\nsamples = 2905\nvalue = [1349, 1556]"] ;
142 -> 143 ;
144 [label="X[1] <= -0.0953\ngini = 0.4798\nsamples = 1630\nvalue = [979, 651]"] ;
143 -> 144 ;
145 [label="gini = 0.4998\nsamples = 1326\nvalue = [677, 649]"] ;
144 -> 145 ;
146 [label="gini = 0.0131\nsamples = 304\nvalue = [302, 2]"] ;
144 -> 146 ;
147 [label="X[1] <= -0.0577\ngini = 0.412\nsamples = 1275\nvalue = [370, 905]"] ;
143 -> 147 ;
148 [label="gini = 0.1859\nsamples = 511\nvalue = [53, 458]"] ;
147 -> 148 ;
149 [label="gini = 0.4855\nsamples = 764\nvalue = [317, 447]"] ;
147 -> 149 ;
150 [label="X[1] <= 0.0031\ngini = 0.2913\nsamples = 2622\nvalue = [2158, 464]"] ;
142 -> 150 ;
151 [label="X[1] <= -0.0833\ngini = 0.4051\nsamples = 1630\nvalue = [1170, 460]"] ;
150 -> 151 ;
152 [label="gini = 0.1909\nsamples = 1282\nvalue = [1145, 137]"] ;
151 -> 152 ;
153 [label="gini = 0.1334\nsamples = 348\nvalue = [25, 323]"] ;
151 -> 153 ;
154 [label="X[1] <= 0.027\ngini = 0.008\nsamples = 992\nvalue = [988, 4]"] ;
150 -> 154 ;
155 [label="gini = 0.002\nsamples = 985\nvalue = [984, 1]"] ;
154 -> 155 ;
156 [label="gini = 0.4898\nsamples = 7\nvalue = [4, 3]"] ;
154 -> 156 ;
157 [label="X[0] <= 0.5466\ngini = 0.4317\nsamples = 12764\nvalue = [4024, 8740]"] ;
141 -> 157 ;
158 [label="X[1] <= 0.1059\ngini = 0.3313\nsamples = 9803\nvalue = [2054, 7749]"] ;
157 -> 158 ;
159 [label="X[1] <= 0.0484\ngini = 0.4431\nsamples = 3290\nvalue = [1090, 2200]"] ;
158 -> 159 ;
160 [label="gini = 0.16\nsamples = 1129\nvalue = [99, 1030]"] ;
159 -> 160 ;
161 [label="gini = 0.4966\nsamples = 2161\nvalue = [991, 1170]"] ;
159 -> 161 ;
162 [label="X[1] <= 0.1749\ngini = 0.2522\nsamples = 6513\nvalue = [964, 5549]"] ;
158 -> 162 ;
163 [label="gini = 0.0375\nsamples = 1883\nvalue = [36, 1847]"] ;
162 -> 163 ;
164 [label="gini = 0.3205\nsamples = 4630\nvalue = [928, 3702]"] ;
162 -> 164 ;
165 [label="X[1] <= 0.2861\ngini = 0.4453\nsamples = 2961\nvalue = [1970, 991]"] ;
157 -> 165 ;
166 [label="X[2] <= 362.5\ngini = 0.1037\nsamples = 1477\nvalue = [1396, 81]"] ;
165 -> 166 ;
167 [label="gini = 0.0555\nsamples = 1434\nvalue = [1393, 41]"] ;
166 -> 167 ;
168 [label="gini = 0.1298\nsamples = 43\nvalue = [3, 40]"] ;
166 -> 168 ;
169 [label="X[1] <= 0.4034\ngini = 0.4744\nsamples = 1484\nvalue = [574, 910]"] ;
165 -> 169 ;
170 [label="gini = 0.0734\nsamples = 393\nvalue = [15, 378]"] ;
169 -> 170 ;
171 [label="gini = 0.4997\nsamples = 1091\nvalue = [559, 532]"] ;
169 -> 171 ;
172 [label="X[1] <= 0.1681\ngini = 0.4375\nsamples = 66973\nvalue = [45322, 21651]"] ;
118 -> 172 ;
173 [label="X[0] <= 0.4092\ngini = 0.4979\nsamples = 31784\nvalue = [16914, 14870]"] ;
172 -> 173 ;
174 [label="X[2] <= 408.5\ngini = 0.4534\nsamples = 20271\nvalue = [7041, 13230]"] ;
173 -> 174 ;
175 [label="X[1] <= 0.0723\ngini = 0.1601\nsamples = 866\nvalue = [790, 76]"] ;
174 -> 175 ;
176 [label="X[0] <= 0.2609\ngini = 0.1147\nsamples = 802\nvalue = [753, 49]"] ;
175 -> 176 ;
177 [label="gini = 0.3864\nsamples = 107\nvalue = [79, 28]"] ;
176 -> 177 ;
178 [label="gini = 0.0586\nsamples = 695\nvalue = [674, 21]"] ;
176 -> 178 ;
179 [label="X[1] <= 0.121\ngini = 0.4878\nsamples = 64\nvalue = [37, 27]"] ;
175 -> 179 ;
180 [label="gini = 0.0768\nsamples = 25\nvalue = [1, 24]"] ;
179 -> 180 ;
181 [label="gini = 0.142\nsamples = 39\nvalue = [36, 3]"] ;
179 -> 181 ;
182 [label="X[0] <= 0.3424\ngini = 0.4367\nsamples = 19405\nvalue = [6251, 13154]"] ;
174 -> 182 ;
183 [label="X[2] <= 1103.5\ngini = 0.3825\nsamples = 13531\nvalue = [3486, 10045]"] ;
182 -> 183 ;
184 [label="gini = 0.4036\nsamples = 12153\nvalue = [3409, 8744]"] ;
183 -> 184 ;
185 [label="gini = 0.1055\nsamples = 1378\nvalue = [77, 1301]"] ;
183 -> 185 ;
186 [label="X[1] <= 0.0659\ngini = 0.4983\nsamples = 5874\nvalue = [2765, 3109]"] ;
182 -> 186 ;
187 [label="gini = 0.4758\nsamples = 3289\nvalue = [2006, 1283]"] ;
186 -> 187 ;
188 [label="gini = 0.4148\nsamples = 2585\nvalue = [759, 1826]"] ;
186 -> 188 ;
189 [label="X[2] <= 793.5\ngini = 0.2443\nsamples = 11513\nvalue = [9873, 1640]"] ;
173 -> 189 ;
190 [label="X[1] <= 0.1571\ngini = 0.1985\nsamples = 10973\nvalue = [9747, 1226]"] ;
189 -> 190 ;
191 [label="X[1] <= 0.0774\ngini = 0.1714\nsamples = 10700\nvalue = [9687, 1013]"] ;
190 -> 191 ;
192 [label="gini = 0.0816\nsamples = 7042\nvalue = [6742, 300]"] ;
191 -> 192 ;
193 [label="gini = 0.3138\nsamples = 3658\nvalue = [2945, 713]"] ;
191 -> 193 ;
194 [label="X[2] <= 631.5\ngini = 0.343\nsamples = 273\nvalue = [60, 213]"] ;
190 -> 194 ;
195 [label="gini = 0.0129\nsamples = 154\nvalue = [1, 153]"] ;
194 -> 195 ;
196 [label="gini = 0.5\nsamples = 119\nvalue = [59, 60]"] ;
194 -> 196 ;
197 [label="X[2] <= 1013.0\ngini = 0.3578\nsamples = 540\nvalue = [126, 414]"] ;
189 -> 197 ;
198 [label="X[1] <= 0.0506\ngini = 0.4643\nsamples = 333\nvalue = [122, 211]"] ;
197 -> 198 ;
199 [label="gini = 0.1327\nsamples = 56\nvalue = [4, 52]"] ;
198 -> 199 ;
200 [label="gini = 0.489\nsamples = 277\nvalue = [118, 159]"] ;
198 -> 200 ;
201 [label="X[2] <= 1142.5\ngini = 0.0379\nsamples = 207\nvalue = [4, 203]"] ;
197 -> 201 ;
202 [label="gini = 0.1841\nsamples = 39\nvalue = [4, 35]"] ;
201 -> 202 ;
203 [label="gini = 0.0\nsamples = 168\nvalue = [0, 168]"] ;
201 -> 203 ;
204 [label="X[2] <= 880.5\ngini = 0.3111\nsamples = 35189\nvalue = [28408, 6781]"] ;
172 -> 204 ;
205 [label="X[0] <= 0.5389\ngini = 0.4134\nsamples = 18693\nvalue = [13236, 5457]"] ;
204 -> 205 ;
206 [label="X[1] <= 0.1891\ngini = 0.4879\nsamples = 10837\nvalue = [6262, 4575]"] ;
205 -> 206 ;
207 [label="X[0] <= 0.4574\ngini = 0.2515\nsamples = 2305\nvalue = [1965, 340]"] ;
206 -> 207 ;
208 [label="gini = 0.4999\nsamples = 592\nvalue = [292, 300]"] ;
207 -> 208 ;
209 [label="gini = 0.0456\nsamples = 1713\nvalue = [1673, 40]"] ;
207 -> 209 ;
210 [label="X[2] <= 517.0\ngini = 0.5\nsamples = 8532\nvalue = [4297, 4235]"] ;
206 -> 210 ;
211 [label="gini = 0.3327\nsamples = 2268\nvalue = [478, 1790]"] ;
210 -> 211 ;
212 [label="gini = 0.4759\nsamples = 6264\nvalue = [3819, 2445]"] ;
210 -> 212 ;
213 [label="X[1] <= 0.3018\ngini = 0.1993\nsamples = 7856\nvalue = [6974, 882]"] ;
205 -> 213 ;
214 [label="X[2] <= 839.5\ngini = 0.0455\nsamples = 4941\nvalue = [4826, 115]"] ;
213 -> 214 ;
215 [label="gini = 0.0436\nsamples = 4933\nvalue = [4823, 110]"] ;
214 -> 215 ;
216 [label="gini = 0.4688\nsamples = 8\nvalue = [3, 5]"] ;
214 -> 216 ;
217 [label="X[0] <= 0.6554\ngini = 0.3878\nsamples = 2915\nvalue = [2148, 767]"] ;
213 -> 217 ;
218 [label="gini = 0.4704\nsamples = 1906\nvalue = [1185, 721]"] ;
217 -> 218 ;
219 [label="gini = 0.087\nsamples = 1009\nvalue = [963, 46]"] ;
217 -> 219 ;
220 [label="X[2] <= 1310.5\ngini = 0.1476\nsamples = 16496\nvalue = [15172, 1324]"] ;
204 -> 220 ;
221 [label="X[0] <= 0.455\ngini = 0.1173\nsamples = 16092\nvalue = [15085, 1007]"] ;
220 -> 221 ;
222 [label="X[0] <= 0.3764\ngini = 0.0651\nsamples = 14371\nvalue = [13887, 484]"] ;
221 -> 222 ;
223 [label="gini = 0.0254\nsamples = 11369\nvalue = [11223, 146]"] ;
222 -> 223 ;
224 [label="gini = 0.1998\nsamples = 3002\nvalue = [2664, 338]"] ;
222 -> 224 ;
225 [label="X[0] <= 0.5477\ngini = 0.4231\nsamples = 1721\nvalue = [1198, 523]"] ;
221 -> 225 ;
226 [label="gini = 0.3832\nsamples = 1533\nvalue = [1137, 396]"] ;
225 -> 226 ;
227 [label="gini = 0.4384\nsamples = 188\nvalue = [61, 127]"] ;
225 -> 227 ;
228 [label="X[0] <= 0.4218\ngini = 0.3379\nsamples = 404\nvalue = [87, 317]"] ;
220 -> 228 ;
229 [label="X[2] <= 2158.5\ngini = 0.4978\nsamples = 165\nvalue = [77, 88]"] ;
228 -> 229 ;
230 [label="gini = 0.4677\nsamples = 118\nvalue = [74, 44]"] ;
229 -> 230 ;
231 [label="gini = 0.1195\nsamples = 47\nvalue = [3, 44]"] ;
229 -> 231 ;
232 [label="X[0] <= 0.4706\ngini = 0.0802\nsamples = 239\nvalue = [10, 229]"] ;
228 -> 232 ;
233 [label="gini = 0.255\nsamples = 60\nvalue = [9, 51]"] ;
232 -> 233 ;
234 [label="gini = 0.0111\nsamples = 179\nvalue = [1, 178]"] ;
232 -> 234 ;
}