digraph Tree {
node [shape=box] ;
0 [label="X[0] <= 0.1047\ngini = 0.3103\nsamples = 4937172\nvalue = [3988944, 948228]"] ;
1 [label="X[2] <= 3556.0\ngini = 0.1762\nsamples = 952064\nvalue = [92965, 859099]"] ;
0 -> 1 [labeldistance=2.5, labelangle=45, headlabel="True"] ;
2 [label="X[3] <= 1118.5\ngini = 0.0933\nsamples = 903319\nvalue = [44303, 859016]"] ;
1 -> 2 ;
3 [label="X[1] <= -0.2197\ngini = 0.0684\nsamples = 889640\nvalue = [31567, 858073]"] ;
2 -> 3 ;
4 [label="X[0] <= -0.0138\ngini = 0.0309\nsamples = 826047\nvalue = [12957, 813090]"] ;
3 -> 4 ;
5 [label="X[0] <= -0.1657\ngini = 0.0198\nsamples = 793853\nvalue = [7936, 785917]"] ;
4 -> 5 ;
6 [label="X[2] <= 2063.5\ngini = 0.0118\nsamples = 733727\nvalue = [4345, 729382]"] ;
5 -> 6 ;
7 [label="gini = 0.0063\nsamples = 703845\nvalue = [2235, 701610]"] ;
6 -> 7 ;
8 [label="gini = 0.1313\nsamples = 29882\nvalue = [2110, 27772]"] ;
6 -> 8 ;
9 [label="X[3] <= 148.5\ngini = 0.1123\nsamples = 60126\nvalue = [3591, 56535]"] ;
5 -> 9 ;
10 [label="gini = 0.3365\nsamples = 11300\nvalue = [2419, 8881]"] ;
9 -> 10 ;
11 [label="gini = 0.0469\nsamples = 48826\nvalue = [1172, 47654]"] ;
9 -> 11 ;
12 [label="X[2] <= 2075.5\ngini = 0.2633\nsamples = 32194\nvalue = [5021, 27173]"] ;
4 -> 12 ;
13 [label="X[3] <= 524.5\ngini = 0.2299\nsamples = 31221\nvalue = [4137, 27084]"] ;
12 -> 13 ;
14 [label="gini = 0.3362\nsamples = 17663\nvalue = [3776, 13887]"] ;
13 -> 14 ;
15 [label="gini = 0.0518\nsamples = 13558\nvalue = [361, 13197]"] ;
13 -> 15 ;
16 [label="X[3] <= 871.0\ngini = 0.1662\nsamples = 973\nvalue = [884, 89]"] ;
12 -> 16 ;
17 [label="gini = 0.0673\nsamples = 860\nvalue = [830, 30]"] ;
16 -> 17 ;
18 [label="gini = 0.499\nsamples = 113\nvalue = [54, 59]"] ;
16 -> 18 ;
19 [label="X[2] <= 175.5\ngini = 0.414\nsamples = 63593\nvalue = [18610, 44983]"] ;
3 -> 19 ;
20 [label="X[3] <= 83.5\ngini = 0.0421\nsamples = 16033\nvalue = [345, 15688]"] ;
19 -> 20 ;
21 [label="X[1] <= -0.2122\ngini = 0.0072\nsamples = 13018\nvalue = [47, 12971]"] ;
20 -> 21 ;
22 [label="gini = 0.0\nsamples = 1\nvalue = [1, 0]"] ;
21 -> 22 ;
23 [label="gini = 0.007\nsamples = 13017\nvalue = [46, 12971]"] ;
21 -> 23 ;
24 [label="X[3] <= 86.5\ngini = 0.1781\nsamples = 3015\nvalue = [298, 2717]"] ;
20 -> 24 ;
25 [label="gini = 0.1023\nsamples = 111\nvalue = [105, 6]"] ;
24 -> 25 ;
26 [label="gini = 0.1241\nsamples = 2904\nvalue = [193, 2711]"] ;
24 -> 26 ;
27 [label="X[1] <= -0.0111\ngini = 0.4731\nsamples = 47560\nvalue = [18265, 29295]"] ;
19 -> 27 ;
28 [label="X[2] <= 183.5\ngini = 0.3901\nsamples = 36810\nvalue = [9777, 27033]"] ;
27 -> 28 ;
29 [label="gini = 0.0903\nsamples = 1731\nvalue = [1649, 82]"] ;
28 -> 29 ;
30 [label="gini = 0.356\nsamples = 35079\nvalue = [8128, 26951]"] ;
28 -> 30 ;
31 [label="X[2] <= 183.5\ngini = 0.3323\nsamples = 10750\nvalue = [8488, 2262]"] ;
27 -> 31 ;
32 [label="gini = 0.0068\nsamples = 2641\nvalue = [2632, 9]"] ;
31 -> 32 ;
33 [label="gini = 0.4013\nsamples = 8109\nvalue = [5856, 2253]"] ;
31 -> 33 ;
34 [label="X[3] <= 1265.5\ngini = 0.1284\nsamples = 13679\nvalue = [12736, 943]"] ;
2 -> 34 ;
35 [label="X[1] <= -0.0749\ngini = 0.4954\nsamples = 1516\nvalue = [831, 685]"] ;
34 -> 35 ;
36 [label="X[2] <= 1956.0\ngini = 0.4735\nsamples = 943\nvalue = [363, 580]"] ;
35 -> 36 ;
37 [label="X[3] <= 1242.0\ngini = 0.3807\nsamples = 692\nvalue = [177, 515]"] ;
36 -> 37 ;
38 [label="gini = 0.3318\nsamples = 600\nvalue = [126, 474]"] ;
37 -> 38 ;
39 [label="gini = 0.4941\nsamples = 92\nvalue = [51, 41]"] ;
37 -> 39 ;
40 [label="X[1] <= -0.4557\ngini = 0.3838\nsamples = 251\nvalue = [186, 65]"] ;
36 -> 40 ;
41 [label="gini = 0.1843\nsamples = 185\nvalue = [166, 19]"] ;
40 -> 41 ;
42 [label="gini = 0.4224\nsamples = 66\nvalue = [20, 46]"] ;
40 -> 42 ;
43 [label="X[2] <= 851.5\ngini = 0.2993\nsamples = 573\nvalue = [468, 105]"] ;
35 -> 43 ;
44 [label="gini = 0.0\nsamples = 15\nvalue = [0, 15]"] ;
43 -> 44 ;
45 [label="X[1] <= -0.0137\ngini = 0.2706\nsamples = 558\nvalue = [468, 90]"] ;
43 -> 45 ;
46 [label="gini = 0.3804\nsamples = 184\nvalue = [137, 47]"] ;
45 -> 46 ;
47 [label="gini = 0.2035\nsamples = 374\nvalue = [331, 43]"] ;
45 -> 47 ;
48 [label="X[3] <= 1359.5\ngini = 0.0415\nsamples = 12163\nvalue = [11905, 258]"] ;
34 -> 48 ;
49 [label="X[2] <= 1649.0\ngini = 0.1941\nsamples = 973\nvalue = [867, 106]"] ;
48 -> 49 ;
50 [label="X[0] <= -0.0485\ngini = 0.0585\nsamples = 729\nvalue = [707, 22]"] ;
49 -> 50 ;
51 [label="gini = 0.32\nsamples = 15\nvalue = [3, 12]"] ;
50 -> 51 ;
52 [label="gini = 0.0276\nsamples = 714\nvalue = [704, 10]"] ;
50 -> 52 ;
53 [label="X[0] <= 0.0284\ngini = 0.4515\nsamples = 244\nvalue = [160, 84]"] ;
49 -> 53 ;
54 [label="gini = 0.2521\nsamples = 169\nvalue = [144, 25]"] ;
53 -> 54 ;
55 [label="gini = 0.3356\nsamples = 75\nvalue = [16, 59]"] ;
53 -> 55 ;
56 [label="X[3] <= 1687.0\ngini = 0.0268\nsamples = 11190\nvalue = [11038, 152]"] ;
48 -> 56 ;
57 [label="X[2] <= 2000.5\ngini = 0.0523\nsamples = 4911\nvalue = [4779, 132]"] ;
56 -> 57 ;
58 [label="gini = 0.0235\nsamples = 4281\nvalue = [4230, 51]"] ;
57 -> 58 ;
59 [label="gini = 0.2241\nsamples = 630\nvalue = [549, 81]"] ;
57 -> 59 ;
60 [label="X[0] <= 0.0859\ngini = 0.0064\nsamples = 6279\nvalue = [6259, 20]"] ;
56 -> 60 ;
61 [label="gini = 0.0014\nsamples = 5587\nvalue = [5583, 4]"] ;
60 -> 61 ;
62 [label="gini = 0.0452\nsamples = 692\nvalue = [676, 16]"] ;
60 -> 62 ;
63 [label="X[3] <= 170.0\ngini = 0.0034\nsamples = 48745\nvalue = [48662, 83]"] ;
1 -> 63 ;
64 [label="X[2] <= 3767.0\ngini = 0.0928\nsamples = 82\nvalue = [4, 78]"] ;
63 -> 64 ;
65 [label="gini = 0.0\nsamples = 78\nvalue = [0, 78]"] ;
64 -> 65 ;
66 [label="gini = 0.0\nsamples = 4\nvalue = [4, 0]"] ;
64 -> 66 ;
67 [label="X[3] <= 196.5\ngini = 0.0002\nsamples = 48663\nvalue = [48658, 5]"] ;
63 -> 67 ;
68 [label="X[2] <= 3681.0\ngini = 0.3599\nsamples = 17\nvalue = [13, 4]"] ;
67 -> 68 ;
69 [label="X[0] <= -0.9094\ngini = 0.32\nsamples = 5\nvalue = [1, 4]"] ;
68 -> 69 ;
70 [label="gini = 0.0\nsamples = 1\nvalue = [1, 0]"] ;
69 -> 70 ;
71 [label="gini = 0.0\nsamples = 4\nvalue = [0, 4]"] ;
69 -> 71 ;
72 [label="gini = 0.0\nsamples = 12\nvalue = [12, 0]"] ;
68 -> 72 ;
73 [label="X[0] <= -0.8871\ngini = 0.0\nsamples = 48646\nvalue = [48645, 1]"] ;
67 -> 73 ;
74 [label="X[2] <= 3607.5\ngini = 0.0408\nsamples = 48\nvalue = [47, 1]"] ;
73 -> 74 ;
75 [label="gini = 0.0\nsamples = 1\nvalue = [0, 1]"] ;
74 -> 75 ;
76 [label="gini = 0.0\nsamples = 47\nvalue = [47, 0]"] ;
74 -> 76 ;
77 [label="gini = 0.0\nsamples = 48598\nvalue = [48598, 0]"] ;
73 -> 77 ;
78 [label="X[0] <= 0.2561\ngini = 0.0437\nsamples = 3985108\nvalue = [3895979, 89129]"] ;
0 -> 78 [labeldistance=2.5, labelangle=-45, headlabel="False"] ;
79 [label="X[1] <= 0.0053\ngini = 0.4113\nsamples = 155095\nvalue = [110211, 44884]"] ;
78 -> 79 ;
80 [label="X[2] <= 1562.5\ngini = 0.482\nsamples = 94894\nvalue = [56453, 38441]"] ;
79 -> 80 ;
81 [label="X[3] <= 601.5\ngini = 0.4987\nsamples = 68307\nvalue = [32425, 35882]"] ;
80 -> 81 ;
82 [label="X[2] <= 175.0\ngini = 0.4783\nsamples = 45392\nvalue = [27426, 17966]"] ;
81 -> 82 ;
83 [label="X[3] <= 132.5\ngini = 0.1691\nsamples = 2413\nvalue = [225, 2188]"] ;
82 -> 83 ;
84 [label="gini = 0.0\nsamples = 1534\nvalue = [0, 1534]"] ;
83 -> 84 ;
85 [label="gini = 0.3809\nsamples = 879\nvalue = [225, 654]"] ;
83 -> 85 ;
86 [label="X[1] <= -0.1859\ngini = 0.4647\nsamples = 42979\nvalue = [27201, 15778]"] ;
82 -> 86 ;
87 [label="gini = 0.3828\nsamples = 24380\nvalue = [18092, 6288]"] ;
86 -> 87 ;
88 [label="gini = 0.4998\nsamples = 18599\nvalue = [9109, 9490]"] ;
86 -> 88 ;
89 [label="X[3] <= 1268.0\ngini = 0.3411\nsamples = 22915\nvalue = [4999, 17916]"] ;
81 -> 89 ;
90 [label="X[1] <= -0.0418\ngini = 0.3115\nsamples = 22060\nvalue = [4257, 17803]"] ;
89 -> 90 ;
91 [label="gini = 0.2483\nsamples = 17630\nvalue = [2561, 15069]"] ;
90 -> 91 ;
92 [label="gini = 0.4725\nsamples = 4430\nvalue = [1696, 2734]"] ;
90 -> 92 ;
93 [label="X[3] <= 1635.0\ngini = 0.2294\nsamples = 855\nvalue = [742, 113]"] ;
89 -> 93 ;
94 [label="gini = 0.1551\nsamples = 791\nvalue = [724, 67]"] ;
93 -> 94 ;
95 [label="gini = 0.4043\nsamples = 64\nvalue = [18, 46]"] ;
93 -> 95 ;
96 [label="X[2] <= 1746.5\ngini = 0.174\nsamples = 26587\nvalue = [24028, 2559]"] ;
80 -> 96 ;
97 [label="X[3] <= 1405.5\ngini = 0.3594\nsamples = 4513\nvalue = [3453, 1060]"] ;
96 -> 97 ;
98 [label="X[3] <= 673.5\ngini = 0.4361\nsamples = 3194\nvalue = [2168, 1026]"] ;
97 -> 98 ;
99 [label="gini = 0.33\nsamples = 1962\nvalue = [1553, 409]"] ;
98 -> 99 ;
100 [label="gini = 0.5\nsamples = 1232\nvalue = [615, 617]"] ;
98 -> 100 ;
101 [label="X[2] <= 1741.5\ngini = 0.0502\nsamples = 1319\nvalue = [1285, 34]"] ;
97 -> 101 ;
102 [label="gini = 0.0417\nsamples = 1313\nvalue = [1285, 28]"] ;
101 -> 102 ;
103 [label="gini = 0.0\nsamples = 6\nvalue = [0, 6]"] ;
101 -> 103 ;
104 [label="X[3] <= 830.0\ngini = 0.1266\nsamples = 22074\nvalue = [20575, 1499]"] ;
96 -> 104 ;
105 [label="X[2] <= 1837.5\ngini = 0.0119\nsamples = 7862\nvalue = [7815, 47]"] ;
104 -> 105 ;
106 [label="gini = 0.0667\nsamples = 695\nvalue = [671, 24]"] ;
105 -> 106 ;
107 [label="gini = 0.0064\nsamples = 7167\nvalue = [7144, 23]"] ;
105 -> 107 ;
108 [label="X[2] <= 2970.0\ngini = 0.1835\nsamples = 14212\nvalue = [12760, 1452]"] ;
104 -> 108 ;
109 [label="gini = 0.2367\nsamples = 10448\nvalue = [9015, 1433]"] ;
108 -> 109 ;
110 [label="gini = 0.01\nsamples = 3764\nvalue = [3745, 19]"] ;
108 -> 110 ;
111 [label="X[3] <= 132.5\ngini = 0.1911\nsamples = 60201\nvalue = [53758, 6443]"] ;
79 -> 111 ;
112 [label="X[2] <= 282.5\ngini = 0.2592\nsamples = 634\nvalue = [97, 537]"] ;
111 -> 112 ;
113 [label="X[1] <= 0.0502\ngini = 0.1078\nsamples = 560\nvalue = [32, 528]"] ;
112 -> 113 ;
114 [label="gini = 0.0\nsamples = 15\nvalue = [15, 0]"] ;
113 -> 114 ;
115 [label="X[2] <= 186.5\ngini = 0.0604\nsamples = 545\nvalue = [17, 528]"] ;
113 -> 115 ;
116 [label="gini = 0.0043\nsamples = 468\nvalue = [1, 467]"] ;
115 -> 116 ;
117 [label="gini = 0.3292\nsamples = 77\nvalue = [16, 61]"] ;
115 -> 117 ;
118 [label="X[3] <= 129.0\ngini = 0.2137\nsamples = 74\nvalue = [65, 9]"] ;
112 -> 118 ;
119 [label="X[0] <= 0.1067\ngini = 0.1344\nsamples = 69\nvalue = [64, 5]"] ;
118 -> 119 ;
120 [label="gini = 0.0\nsamples = 1\nvalue = [0, 1]"] ;
119 -> 120 ;
121 [label="gini = 0.1107\nsamples = 68\nvalue = [64, 4]"] ;
119 -> 121 ;
122 [label="X[0] <= 0.1831\ngini = 0.32\nsamples = 5\nvalue = [1, 4]"] ;
118 -> 122 ;
123 [label="gini = 0.0\nsamples = 1\nvalue = [1, 0]"] ;
122 -> 123 ;
124 [label="gini = 0.0\nsamples = 4\nvalue = [0, 4]"] ;
122 -> 124 ;
125 [label="X[1] <= 0.1234\ngini = 0.1786\nsamples = 59567\nvalue = [53661, 5906]"] ;
111 -> 125 ;
126 [label="X[3] <= 1157.5\ngini = 0.2318\nsamples = 35725\nvalue = [30945, 4780]"] ;
125 -> 126 ;
127 [label="X[3] <= 292.5\ngini = 0.2648\nsamples = 28974\nvalue = [24423, 4551]"] ;
126 -> 127 ;
128 [label="gini = 0.1108\nsamples = 9786\nvalue = [9210, 576]"] ;
127 -> 128 ;
129 [label="gini = 0.3285\nsamples = 19188\nvalue = [15213, 3975]"] ;
127 -> 129 ;
130 [label="X[2] <= 953.0\ngini = 0.0655\nsamples = 6751\nvalue = [6522, 229]"] ;
126 -> 130 ;
131 [label="gini = 0.4998\nsamples = 51\nvalue = [25, 26]"] ;
130 -> 131 ;
132 [label="gini = 0.0588\nsamples = 6700\nvalue = [6497, 203]"] ;
130 -> 132 ;
133 [label="X[2] <= 175.0\ngini = 0.09\nsamples = 23842\nvalue = [22716, 1126]"] ;
125 -> 133 ;
134 [label="X[2] <= 117.5\ngini = 0.4956\nsamples = 245\nvalue = [111, 134]"] ;
133 -> 134 ;
135 [label="gini = 0.332\nsamples = 138\nvalue = [109, 29]"] ;
134 -> 135 ;
136 [label="gini = 0.0367\nsamples = 107\nvalue = [2, 105]"] ;
134 -> 136 ;
137 [label="X[3] <= 832.5\ngini = 0.0805\nsamples = 23597\nvalue = [22605, 992]"] ;
133 -> 137 ;
138 [label="gini = 0.1231\nsamples = 13355\nvalue = [12475, 880]"] ;
137 -> 138 ;
139 [label="gini = 0.0216\nsamples = 10242\nvalue = [10130, 112]"] ;
137 -> 139 ;
140 [label="X[3] <= 83.5\ngini = 0.0228\nsamples = 3830013\nvalue = [3785768, 44245]"] ;
78 -> 140 ;
141 [label="X[2] <= 254.0\ngini = 0.1461\nsamples = 3213\nvalue = [255, 2958]"] ;
140 -> 141 ;
142 [label="X[3] <= 52.0\ngini = 0.0483\nsamples = 3027\nvalue = [75, 2952]"] ;
141 -> 142 ;
143 [label="X[3] <= 50.5\ngini = 0.3389\nsamples = 333\nvalue = [72, 261]"] ;
142 -> 143 ;
144 [label="X[2] <= 187.5\ngini = 0.0509\nsamples = 268\nvalue = [7, 261]"] ;
143 -> 144 ;
145 [label="gini = 0.0\nsamples = 261\nvalue = [0, 261]"] ;
144 -> 145 ;
146 [label="gini = 0.0\nsamples = 7\nvalue = [7, 0]"] ;
144 -> 146 ;
147 [label="gini = 0.0\nsamples = 65\nvalue = [65, 0]"] ;
143 -> 147 ;
148 [label="X[3] <= 82.5\ngini = 0.0022\nsamples = 2694\nvalue = [3, 2691]"] ;
142 -> 148 ;
149 [label="X[0] <= 0.7753\ngini = 0.0015\nsamples = 2692\nvalue = [2, 2690]"] ;
148 -> 149 ;
150 [label="gini = 0.0007\nsamples = 2684\nvalue = [1, 2683]"] ;
149 -> 150 ;
151 [label="gini = 0.2188\nsamples = 8\nvalue = [1, 7]"] ;
149 -> 151 ;
152 [label="X[0] <= 0.6402\ngini = 0.5\nsamples = 2\nvalue = [1, 1]"] ;
148 -> 152 ;
153 [label="gini = 0.0\nsamples = 1\nvalue = [1, 0]"] ;
152 -> 153 ;
154 [label="gini = 0.0\nsamples = 1\nvalue = [0, 1]"] ;
152 -> 154 ;
155 [label="X[3] <= 81.5\ngini = 0.0624\nsamples = 186\nvalue = [180, 6]"] ;
141 -> 155 ;
156 [label="X[3] <= 50.5\ngini = 0.0526\nsamples = 185\nvalue = [180, 5]"] ;
155 -> 156 ;
157 [label="X[0] <= 0.5042\ngini = 0.2449\nsamples = 28\nvalue = [24, 4]"] ;
156 -> 157 ;
158 [label="gini = 0.0\nsamples = 4\nvalue = [0, 4]"] ;
157 -> 158 ;
159 [label="gini = 0.0\nsamples = 24\nvalue = [24, 0]"] ;
157 -> 159 ;
160 [label="X[0] <= 0.4503\ngini = 0.0127\nsamples = 157\nvalue = [156, 1]"] ;
156 -> 160 ;
161 [label="gini = 0.0\nsamples = 133\nvalue = [133, 0]"] ;
160 -> 161 ;
162 [label="gini = 0.0799\nsamples = 24\nvalue = [23, 1]"] ;
160 -> 162 ;
163 [label="gini = 0.0\nsamples = 1\nvalue = [0, 1]"] ;
155 -> 163 ;
164 [label="X[2] <= 1387.5\ngini = 0.0213\nsamples = 3826800\nvalue = [3785513, 41287]"] ;
140 -> 164 ;
165 [label="X[1] <= 0.1749\ngini = 0.1072\nsamples = 644568\nvalue = [607942, 36626]"] ;
164 -> 165 ;
166 [label="X[0] <= 0.437\ngini = 0.2257\nsamples = 178283\nvalue = [155172, 23111]"] ;
165 -> 166 ;
167 [label="X[2] <= 486.5\ngini = 0.2769\nsamples = 125848\nvalue = [104956, 20892]"] ;
166 -> 167 ;
168 [label="gini = 0.1829\nsamples = 30227\nvalue = [27149, 3078]"] ;
167 -> 168 ;
169 [label="gini = 0.3032\nsamples = 95621\nvalue = [77807, 17814]"] ;
167 -> 169 ;
170 [label="X[2] <= 904.5\ngini = 0.0811\nsamples = 52435\nvalue = [50216, 2219]"] ;
166 -> 170 ;
171 [label="gini = 0.1525\nsamples = 19173\nvalue = [17579, 1594]"] ;
170 -> 171 ;
172 [label="gini = 0.0369\nsamples = 33262\nvalue = [32637, 625]"] ;
170 -> 172 ;
173 [label="X[3] <= 422.5\ngini = 0.0563\nsamples = 466285\nvalue = [452770, 13515]"] ;
165 -> 173 ;
174 [label="X[2] <= 411.5\ngini = 0.1622\nsamples = 67323\nvalue = [61329, 5994]"] ;
173 -> 174 ;
175 [label="gini = 0.1058\nsamples = 46291\nvalue = [43697, 2594]"] ;
174 -> 175 ;
176 [label="gini = 0.271\nsamples = 21032\nvalue = [17632, 3400]"] ;
174 -> 176 ;
177 [label="X[1] <= 0.2722\ngini = 0.037\nsamples = 398962\nvalue = [391441, 7521]"] ;
173 -> 177 ;
178 [label="gini = 0.0674\nsamples = 120124\nvalue = [115932, 4192]"] ;
177 -> 178 ;
179 [label="gini = 0.0236\nsamples = 278838\nvalue = [275509, 3329]"] ;
177 -> 179 ;
180 [label="X[0] <= 0.3088\ngini = 0.0029\nsamples = 3182232\nvalue = [3177571, 4661]"] ;
164 -> 180 ;
181 [label="X[2] <= 1694.5\ngini = 0.1046\nsamples = 26795\nvalue = [25312, 1483]"] ;
180 -> 181 ;
182 [label="X[3] <= 673.5\ngini = 0.2399\nsamples = 5899\nvalue = [5077, 822]"] ;
181 -> 182 ;
183 [label="gini = 0.128\nsamples = 3289\nvalue = [3063, 226]"] ;
182 -> 183 ;
184 [label="gini = 0.3524\nsamples = 2610\nvalue = [2014, 596]"] ;
182 -> 184 ;
185 [label="X[2] <= 2931.5\ngini = 0.0613\nsamples = 20896\nvalue = [20235, 661]"] ;
181 -> 185 ;
186 [label="gini = 0.0957\nsamples = 12677\nvalue = [12038, 639]"] ;
185 -> 186 ;
187 [label="gini = 0.0053\nsamples = 8219\nvalue = [8197, 22]"] ;
185 -> 187 ;
188 [label="X[2] <= 1706.5\ngini = 0.002\nsamples = 3155437\nvalue = [3152259, 3178]"] ;
180 -> 188 ;
189 [label="X[0] <= 0.4082\ngini = 0.0147\nsamples = 200514\nvalue = [199028, 1486]"] ;
188 -> 189 ;
190 [label="gini = 0.0969\nsamples = 18660\nvalue = [17707, 953]"] ;
189 -> 190 ;
191 [label="gini = 0.0058\nsamples = 181854\nvalue = [181321, 533]"] ;
189 -> 191 ;
192 [label="X[1] <= 0.1876\ngini = 0.0011\nsamples = 2954923\nvalue = [2953231, 1692]"] ;
188 -> 192 ;
193 [label="gini = 0.0037\nsamples = 719295\nvalue = [717956, 1339]"] ;
192 -> 193 ;
194 [label="gini = 0.0003\nsamples = 2235628\nvalue = [2235275, 353]"] ;
192 -> 194 ;
}